<?xml version="1.0"?>
<opencv_storage>
<cascade>
  <stageType>BOOST</stageType>
  <featureType>HAAR</featureType>
  <height>32</height>
  <width>32</width>
  <stageParams>
    <boostType>GAB</boostType>
    <minHitRate>9.9500000476837158e-01</minHitRate>
    <maxFalseAlarm>5.0000000000000000e-01</maxFalseAlarm>
    <weightTrimRate>9.4999998807907104e-01</weightTrimRate>
    <maxDepth>1</maxDepth>
    <maxWeakCount>100</maxWeakCount></stageParams>
  <featureParams>
    <maxCatCount>0</maxCatCount>
    <featSize>1</featSize>
    <mode>BASIC</mode></featureParams>
  <stageNum>19</stageNum>
  <stages>
    <!-- stage 0 -->
    <_>
      <maxWeakCount>3</maxWeakCount>
      <stageThreshold>-1.0464346408843994e+00</stageThreshold>
      <weakClassifiers>
        <_>
          <internalNodes>
            0 -1 23 -8.1240385770797729e-02</internalNodes>
          <leafValues>
            9.5073890686035156e-01 -9.8974359035491943e-01</leafValues></_>
        <_>
          <internalNodes>
            0 -1 24 1.0379663109779358e-01</internalNodes>
          <leafValues>
            -9.0636289119720459e-01 8.3755499124526978e-01</leafValues></_>
        <_>
          <internalNodes>
            0 -1 61 1.2253150343894958e-02</internalNodes>
          <leafValues>
            -8.5841828584671021e-01 8.4967184066772461e-01</leafValues></_></weakClassifiers></_>
    <!-- stage 1 -->
    <_>
      <maxWeakCount>2</maxWeakCount>
      <stageThreshold>-3.5435792803764343e-01</stageThreshold>
      <weakClassifiers>
        <_>
          <internalNodes>
            0 -1 9 1.4727436006069183e-01</internalNodes>
          <leafValues>
            -9.3548387289047241e-01 8.2075470685958862e-01</leafValues></_>
        <_>
          <internalNodes>
            0 -1 51 -4.7007195651531219e-02</internalNodes>
          <leafValues>
            5.8112591505050659e-01 -9.8997575044631958e-01</leafValues></_></weakClassifiers></_>
    <!-- stage 2 -->
    <_>
      <maxWeakCount>2</maxWeakCount>
      <stageThreshold>-2.9255858063697815e-01</stageThreshold>
      <weakClassifiers>
        <_>
          <internalNodes>
            0 -1 49 -4.5939208939671516e-03</internalNodes>
          <leafValues>
            6.5254235267639160e-01 -9.5061731338500977e-01</leafValues></_>
        <_>
          <internalNodes>
            0 -1 50 -7.1730571798980236e-03</internalNodes>
          <leafValues>
            6.5805870294570923e-01 -8.8384467363357544e-01</leafValues></_></weakClassifiers></_>
    <!-- stage 3 -->
    <_>
      <maxWeakCount>2</maxWeakCount>
      <stageThreshold>-3.5763141512870789e-01</stageThreshold>
      <weakClassifiers>
        <_>
          <internalNodes>
            0 -1 57 -1.1933608911931515e-03</internalNodes>
          <leafValues>
            6.7111110687255859e-01 -8.7283235788345337e-01</leafValues></_>
        <_>
          <internalNodes>
            0 -1 46 2.5739364791661501e-03</internalNodes>
          <leafValues>
            5.1520091295242310e-01 -9.6052718162536621e-01</leafValues></_></weakClassifiers></_>
    <!-- stage 4 -->
    <_>
      <maxWeakCount>3</maxWeakCount>
      <stageThreshold>-1.1125919818878174e+00</stageThreshold>
      <weakClassifiers>
        <_>
          <internalNodes>
            0 -1 18 1.5321622788906097e-01</internalNodes>
          <leafValues>
            -9.2941176891326904e-01 6.9298243522644043e-01</leafValues></_>
        <_>
          <internalNodes>
            0 -1 6 2.7686469256877899e-03</internalNodes>
          <leafValues>
            -7.3122787475585938e-01 7.2051930427551270e-01</leafValues></_>
        <_>
          <internalNodes>
            0 -1 38 6.3865110860206187e-05</internalNodes>
          <leafValues>
            -9.1223824024200439e-01 5.4804766178131104e-01</leafValues></_></weakClassifiers></_>
    <!-- stage 5 -->
    <_>
      <maxWeakCount>3</maxWeakCount>
      <stageThreshold>-4.7845879197120667e-01</stageThreshold>
      <weakClassifiers>
        <_>
          <internalNodes>
            0 -1 12 4.0209308266639709e-02</internalNodes>
          <leafValues>
            -7.8947371244430542e-01 5.9471362829208374e-01</leafValues></_>
        <_>
          <internalNodes>
            0 -1 35 4.8409149050712585e-02</internalNodes>
          <leafValues>
            -5.0980269908905029e-01 8.6225622892379761e-01</leafValues></_>
        <_>
          <internalNodes>
            0 -1 55 7.3434347286820412e-03</internalNodes>
          <leafValues>
            -5.3015244007110596e-01 8.2081758975982666e-01</leafValues></_></weakClassifiers></_>
    <!-- stage 6 -->
    <_>
      <maxWeakCount>4</maxWeakCount>
      <stageThreshold>-7.4695169925689697e-01</stageThreshold>
      <weakClassifiers>
        <_>
          <internalNodes>
            0 -1 14 -3.9424739778041840e-02</internalNodes>
          <leafValues>
            5.9148937463760376e-01 -8.5276073217391968e-01</leafValues></_>
        <_>
          <internalNodes>
            0 -1 15 8.0574182793498039e-03</internalNodes>
          <leafValues>
            -7.5948315858840942e-01 6.5723633766174316e-01</leafValues></_>
        <_>
          <internalNodes>
            0 -1 28 4.1056965710595250e-04</internalNodes>
          <leafValues>
            4.1980007290840149e-01 -9.9133557081222534e-01</leafValues></_>
        <_>
          <internalNodes>
            0 -1 61 1.6544405370950699e-02</internalNodes>
          <leafValues>
            -7.3592340946197510e-01 4.4549211859703064e-01</leafValues></_></weakClassifiers></_>
    <!-- stage 7 -->
    <_>
      <maxWeakCount>4</maxWeakCount>
      <stageThreshold>-5.9990888833999634e-01</stageThreshold>
      <weakClassifiers>
        <_>
          <internalNodes>
            0 -1 3 1.1220490559935570e-02</internalNodes>
          <leafValues>
            -5.4811716079711914e-01 8.2389938831329346e-01</leafValues></_>
        <_>
          <internalNodes>
            0 -1 2 -1.7448861151933670e-02</internalNodes>
          <leafValues>
            4.7994181513786316e-01 -8.9349281787872314e-01</leafValues></_>
        <_>
          <internalNodes>
            0 -1 45 -1.9100580364465714e-02</internalNodes>
          <leafValues>
            4.1781890392303467e-01 -9.4063466787338257e-01</leafValues></_>
        <_>
          <internalNodes>
            0 -1 5 -6.9191504735499620e-04</internalNodes>
          <leafValues>
            -8.3219569921493530e-01 4.2388218641281128e-01</leafValues></_></weakClassifiers></_>
    <!-- stage 8 -->
    <_>
      <maxWeakCount>4</maxWeakCount>
      <stageThreshold>-5.6142884492874146e-01</stageThreshold>
      <weakClassifiers>
        <_>
          <internalNodes>
            0 -1 59 1.4378128573298454e-02</internalNodes>
          <leafValues>
            -7.9661017656326294e-01 6.3800907135009766e-01</leafValues></_>
        <_>
          <internalNodes>
            0 -1 47 1.7724413191899657e-03</internalNodes>
          <leafValues>
            4.3367713689804077e-01 -9.6699899435043335e-01</leafValues></_>
        <_>
          <internalNodes>
            0 -1 10 -1.3461919501423836e-02</internalNodes>
          <leafValues>
            7.1301400661468506e-01 -6.3794189691543579e-01</leafValues></_>
        <_>
          <internalNodes>
            0 -1 48 -3.8007920375093818e-04</internalNodes>
          <leafValues>
            -9.1150981187820435e-01 5.1123255491256714e-01</leafValues></_></weakClassifiers></_>
    <!-- stage 9 -->
    <_>
      <maxWeakCount>4</maxWeakCount>
      <stageThreshold>-3.8358938694000244e-01</stageThreshold>
      <weakClassifiers>
        <_>
          <internalNodes>
            0 -1 52 -1.4318747445940971e-02</internalNodes>
          <leafValues>
            4.4322344660758972e-01 -9.6799999475479126e-01</leafValues></_>
        <_>
          <internalNodes>
            0 -1 7 1.5247547067701817e-02</internalNodes>
          <leafValues>
            -5.2838772535324097e-01 8.5294353961944580e-01</leafValues></_>
        <_>
          <internalNodes>
            0 -1 41 3.0811800388619304e-04</internalNodes>
          <leafValues>
            -6.6615194082260132e-01 6.2779217958450317e-01</leafValues></_>
        <_>
          <internalNodes>
            0 -1 25 -5.7224472984671593e-03</internalNodes>
          <leafValues>
            -9.2234224081039429e-01 4.8500618338584900e-01</leafValues></_></weakClassifiers></_>
    <!-- stage 10 -->
    <_>
      <maxWeakCount>4</maxWeakCount>
      <stageThreshold>-5.8278775215148926e-01</stageThreshold>
      <weakClassifiers>
        <_>
          <internalNodes>
            0 -1 19 5.0606541335582733e-03</internalNodes>
          <leafValues>
            -6.4285713434219360e-01 6.2376236915588379e-01</leafValues></_>
        <_>
          <internalNodes>
            0 -1 27 1.8574364949017763e-03</internalNodes>
          <leafValues>
            4.3982306122779846e-01 -9.5067626237869263e-01</leafValues></_>
        <_>
          <internalNodes>
            0 -1 13 3.6217078566551208e-02</internalNodes>
          <leafValues>
            -6.3944089412689209e-01 5.8800911903381348e-01</leafValues></_>
        <_>
          <internalNodes>
            0 -1 39 -2.5012265541590750e-04</internalNodes>
          <leafValues>
            -9.6776276826858521e-01 4.4144785404205322e-01</leafValues></_></weakClassifiers></_>
    <!-- stage 11 -->
    <_>
      <maxWeakCount>4</maxWeakCount>
      <stageThreshold>-3.5483592748641968e-01</stageThreshold>
      <weakClassifiers>
        <_>
          <internalNodes>
            0 -1 54 -1.1739366687834263e-02</internalNodes>
          <leafValues>
            4.4696968793869019e-01 -8.8059699535369873e-01</leafValues></_>
        <_>
          <internalNodes>
            0 -1 60 4.3940559029579163e-02</internalNodes>
          <leafValues>
            -6.4942502975463867e-01 6.3408362865447998e-01</leafValues></_>
        <_>
          <internalNodes>
            0 -1 8 5.0798997282981873e-02</internalNodes>
          <leafValues>
            -5.2683013677597046e-01 7.9679524898529053e-01</leafValues></_>
        <_>
          <internalNodes>
            0 -1 29 -5.0233898218721151e-04</internalNodes>
          <leafValues>
            -9.0905910730361938e-01 4.8430347442626953e-01</leafValues></_></weakClassifiers></_>
    <!-- stage 12 -->
    <_>
      <maxWeakCount>4</maxWeakCount>
      <stageThreshold>-8.7225472927093506e-01</stageThreshold>
      <weakClassifiers>
        <_>
          <internalNodes>
            0 -1 20 3.1792051158845425e-03</internalNodes>
          <leafValues>
            4.4696968793869019e-01 -8.8059699535369873e-01</leafValues></_>
        <_>
          <internalNodes>
            0 -1 42 -4.2126635089516640e-03</internalNodes>
          <leafValues>
            -9.0104800462722778e-01 4.1732433438301086e-01</leafValues></_>
        <_>
          <internalNodes>
            0 -1 36 -1.6373983817175031e-03</internalNodes>
          <leafValues>
            -8.5369497537612915e-01 4.4408687949180603e-01</leafValues></_>
        <_>
          <internalNodes>
            0 -1 30 3.3449646434746683e-04</internalNodes>
          <leafValues>
            4.4471293687820435e-01 -8.0698871612548828e-01</leafValues></_></weakClassifiers></_>
    <!-- stage 13 -->
    <_>
      <maxWeakCount>4</maxWeakCount>
      <stageThreshold>-3.2130080461502075e-01</stageThreshold>
      <weakClassifiers>
        <_>
          <internalNodes>
            0 -1 21 -9.8588177934288979e-04</internalNodes>
          <leafValues>
            6.1352658271789551e-01 -6.6492146253585815e-01</leafValues></_>
        <_>
          <internalNodes>
            0 -1 58 -5.7983994483947754e-02</internalNodes>
          <leafValues>
            9.2260521650314331e-01 -5.0062948465347290e-01</leafValues></_>
        <_>
          <internalNodes>
            0 -1 33 1.3861921615898609e-03</internalNodes>
          <leafValues>
            5.2540832757949829e-01 -8.4971451759338379e-01</leafValues></_>
        <_>
          <internalNodes>
            0 -1 16 -1.2504926417022943e-05</internalNodes>
          <leafValues>
            4.2426651716232300e-01 -9.5960623025894165e-01</leafValues></_></weakClassifiers></_>
    <!-- stage 14 -->
    <_>
      <maxWeakCount>4</maxWeakCount>
      <stageThreshold>-5.2826452255249023e-01</stageThreshold>
      <weakClassifiers>
        <_>
          <internalNodes>
            0 -1 11 -1.5677924966439605e-03</internalNodes>
          <leafValues>
            -8.6956518888473511e-01 4.6153846383094788e-01</leafValues></_>
        <_>
          <internalNodes>
            0 -1 1 3.7006009370088577e-02</internalNodes>
          <leafValues>
            -4.9599596858024597e-01 8.9104658365249634e-01</leafValues></_>
        <_>
          <internalNodes>
            0 -1 26 5.0993438344448805e-04</internalNodes>
          <leafValues>
            4.6035143733024597e-01 -9.0163916349411011e-01</leafValues></_>
        <_>
          <internalNodes>
            0 -1 37 -2.2591528249904513e-04</internalNodes>
          <leafValues>
            -9.3849956989288330e-01 4.0783214569091797e-01</leafValues></_></weakClassifiers></_>
    <!-- stage 15 -->
    <_>
      <maxWeakCount>3</maxWeakCount>
      <stageThreshold>1.9193594157695770e-01</stageThreshold>
      <weakClassifiers>
        <_>
          <internalNodes>
            0 -1 53 -6.8029505200684071e-03</internalNodes>
          <leafValues>
            6.6497462987899780e-01 -6.5174126625061035e-01</leafValues></_>
        <_>
          <internalNodes>
            0 -1 40 2.9218260897323489e-04</internalNodes>
          <leafValues>
            4.6465569734573364e-01 -8.5421806573867798e-01</leafValues></_>
        <_>
          <internalNodes>
            0 -1 43 -4.3962747440673411e-04</internalNodes>
          <leafValues>
            -1. 3.8117939233779907e-01</leafValues></_></weakClassifiers></_>
    <!-- stage 16 -->
    <_>
      <maxWeakCount>5</maxWeakCount>
      <stageThreshold>-1.2963948249816895e+00</stageThreshold>
      <weakClassifiers>
        <_>
          <internalNodes>
            0 -1 32 -4.7818388789892197e-02</internalNodes>
          <leafValues>
            4.2753621935844421e-01 -9.6721309423446655e-01</leafValues></_>
        <_>
          <internalNodes>
            0 -1 34 3.6179804010316730e-04</internalNodes>
          <leafValues>
            3.2579800486564636e-01 -9.8692387342453003e-01</leafValues></_>
        <_>
          <internalNodes>
            0 -1 4 2.8855444863438606e-02</internalNodes>
          <leafValues>
            -5.8234047889709473e-01 7.5957870483398438e-01</leafValues></_>
        <_>
          <internalNodes>
            0 -1 17 -1.8279489129781723e-02</internalNodes>
          <leafValues>
            8.7027519941329956e-01 -5.0884199142456055e-01</leafValues></_>
        <_>
          <internalNodes>
            0 -1 31 -1.8361914902925491e-02</internalNodes>
          <leafValues>
            -9.8957669734954834e-01 4.3620276451110840e-01</leafValues></_></weakClassifiers></_>
    <!-- stage 17 -->
    <_>
      <maxWeakCount>2</maxWeakCount>
      <stageThreshold>-1.1895649880170822e-01</stageThreshold>
      <weakClassifiers>
        <_>
          <internalNodes>
            0 -1 22 3.6459416151046753e-03</internalNodes>
          <leafValues>
            5.7768923044204712e-01 -9.8639458417892456e-01</leafValues></_>
        <_>
          <internalNodes>
            0 -1 0 -3.3595275599509478e-03</internalNodes>
          <leafValues>
            -6.5547865629196167e-01 8.6743807792663574e-01</leafValues></_></weakClassifiers></_>
    <!-- stage 18 -->
    <_>
      <maxWeakCount>2</maxWeakCount>
      <stageThreshold>-1.4902417361736298e-01</stageThreshold>
      <weakClassifiers>
        <_>
          <internalNodes>
            0 -1 44 1.3152499450370669e-03</internalNodes>
          <leafValues>
            5.7142859697341919e-01 -9.8630136251449585e-01</leafValues></_>
        <_>
          <internalNodes>
            0 -1 56 4.6605125069618225e-02</internalNodes>
          <leafValues>
            -7.2045272588729858e-01 9.2107373476028442e-01</leafValues></_></weakClassifiers></_></stages>
  <features>
    <_>
      <rects>
        <_>
          0 13 2 18 -1.</_>
        <_>
          0 22 2 9 2.</_></rects>
      <tilted>0</tilted></_>
    <_>
      <rects>
        <_>
          0 14 10 7 -1.</_>
        <_>
          5 14 5 7 2.</_></rects>
      <tilted>0</tilted></_>
    <_>
      <rects>
        <_>
          0 18 22 9 -1.</_>
        <_>
          0 21 22 3 3.</_></rects>
      <tilted>0</tilted></_>
    <_>
      <rects>
        <_>
          0 19 15 2 -1.</_>
        <_>
          5 19 5 2 3.</_></rects>
      <tilted>0</tilted></_>
    <_>
      <rects>
        <_>
          0 19 14 7 -1.</_>
        <_>
          7 19 7 7 2.</_></rects>
      <tilted>0</tilted></_>
    <_>
      <rects>
        <_>
          0 20 1 12 -1.</_>
        <_>
          0 26 1 6 2.</_></rects>
      <tilted>0</tilted></_>
    <_>
      <rects>
        <_>
          0 20 10 1 -1.</_>
        <_>
          5 20 5 1 2.</_></rects>
      <tilted>0</tilted></_>
    <_>
      <rects>
        <_>
          0 20 10 3 -1.</_>
        <_>
          5 20 5 3 2.</_></rects>
      <tilted>0</tilted></_>
    <_>
      <rects>
        <_>
          0 20 16 9 -1.</_>
        <_>
          8 20 8 9 2.</_></rects>
      <tilted>0</tilted></_>
    <_>
      <rects>
        <_>
          1 6 24 18 -1.</_>
        <_>
          1 12 24 6 3.</_></rects>
      <tilted>0</tilted></_>
    <_>
      <rects>
        <_>
          1 26 18 6 -1.</_>
        <_>
          1 26 9 3 2.</_>
        <_>
          10 29 9 3 2.</_></rects>
      <tilted>0</tilted></_>
    <_>
      <rects>
        <_>
          1 28 7 4 -1.</_>
        <_>
          1 30 7 2 2.</_></rects>
      <tilted>0</tilted></_>
    <_>
      <rects>
        <_>
          3 7 20 12 -1.</_>
        <_>
          3 11 20 4 3.</_></rects>
      <tilted>0</tilted></_>
    <_>
      <rects>
        <_>
          3 8 20 9 -1.</_>
        <_>
          3 11 20 3 3.</_></rects>
      <tilted>0</tilted></_>
    <_>
      <rects>
        <_>
          3 17 16 8 -1.</_>
        <_>
          3 21 16 4 2.</_></rects>
      <tilted>0</tilted></_>
    <_>
      <rects>
        <_>
          4 15 9 11 -1.</_>
        <_>
          7 15 3 11 3.</_></rects>
      <tilted>0</tilted></_>
    <_>
      <rects>
        <_>
          4 15 12 4 -1.</_>
        <_>
          4 17 12 2 2.</_></rects>
      <tilted>0</tilted></_>
    <_>
      <rects>
        <_>
          4 28 20 4 -1.</_>
        <_>
          4 28 10 2 2.</_>
        <_>
          14 30 10 2 2.</_></rects>
      <tilted>0</tilted></_>
    <_>
      <rects>
        <_>
          5 6 19 21 -1.</_>
        <_>
          5 13 19 7 3.</_></rects>
      <tilted>0</tilted></_>
    <_>
      <rects>
        <_>
          5 10 6 12 -1.</_>
        <_>
          5 10 3 6 2.</_>
        <_>
          8 16 3 6 2.</_></rects>
      <tilted>0</tilted></_>
    <_>
      <rects>
        <_>
          6 16 22 6 -1.</_>
        <_>
          17 16 11 6 2.</_></rects>
      <tilted>0</tilted></_>
    <_>
      <rects>
        <_>
          7 6 4 11 -1.</_>
        <_>
          9 6 2 11 2.</_></rects>
      <tilted>0</tilted></_>
    <_>
      <rects>
        <_>
          7 12 20 8 -1.</_>
        <_>
          7 12 10 4 2.</_>
        <_>
          17 16 10 4 2.</_></rects>
      <tilted>0</tilted></_>
    <_>
      <rects>
        <_>
          7 13 16 14 -1.</_>
        <_>
          7 20 16 7 2.</_></rects>
      <tilted>0</tilted></_>
    <_>
      <rects>
        <_>
          8 6 15 18 -1.</_>
        <_>
          8 12 15 6 3.</_></rects>
      <tilted>0</tilted></_>
    <_>
      <rects>
        <_>
          8 9 12 5 -1.</_>
        <_>
          12 9 4 5 3.</_></rects>
      <tilted>0</tilted></_>
    <_>
      <rects>
        <_>
          9 6 9 3 -1.</_>
        <_>
          12 6 3 3 3.</_></rects>
      <tilted>0</tilted></_>
    <_>
      <rects>
        <_>
          9 8 12 5 -1.</_>
        <_>
          13 8 4 5 3.</_></rects>
      <tilted>0</tilted></_>
    <_>
      <rects>
        <_>
          10 6 8 1 -1.</_>
        <_>
          14 6 4 1 2.</_></rects>
      <tilted>0</tilted></_>
    <_>
      <rects>
        <_>
          10 8 10 4 -1.</_>
        <_>
          15 8 5 4 2.</_></rects>
      <tilted>0</tilted></_>
    <_>
      <rects>
        <_>
          11 8 8 1 -1.</_>
        <_>
          15 8 4 1 2.</_></rects>
      <tilted>0</tilted></_>
    <_>
      <rects>
        <_>
          11 10 12 16 -1.</_>
        <_>
          11 10 6 8 2.</_>
        <_>
          17 18 6 8 2.</_></rects>
      <tilted>0</tilted></_>
    <_>
      <rects>
        <_>
          11 12 8 16 -1.</_>
        <_>
          11 20 8 8 2.</_></rects>
      <tilted>0</tilted></_>
    <_>
      <rects>
        <_>
          11 23 8 3 -1.</_>
        <_>
          15 23 4 3 2.</_></rects>
      <tilted>0</tilted></_>
    <_>
      <rects>
        <_>
          12 22 6 2 -1.</_>
        <_>
          12 22 3 1 2.</_>
        <_>
          15 23 3 1 2.</_></rects>
      <tilted>0</tilted></_>
    <_>
      <rects>
        <_>
          14 11 18 6 -1.</_>
        <_>
          20 11 6 6 3.</_></rects>
      <tilted>0</tilted></_>
    <_>
      <rects>
        <_>
          14 21 15 3 -1.</_>
        <_>
          14 22 15 1 3.</_></rects>
      <tilted>0</tilted></_>
    <_>
      <rects>
        <_>
          14 22 5 2 -1.</_>
        <_>
          14 23 5 1 2.</_></rects>
      <tilted>0</tilted></_>
    <_>
      <rects>
        <_>
          14 23 10 2 -1.</_>
        <_>
          19 23 5 2 2.</_></rects>
      <tilted>0</tilted></_>
    <_>
      <rects>
        <_>
          14 23 7 2 -1.</_>
        <_>
          14 24 7 1 2.</_></rects>
      <tilted>0</tilted></_>
    <_>
      <rects>
        <_>
          14 23 9 3 -1.</_>
        <_>
          14 24 9 1 3.</_></rects>
      <tilted>0</tilted></_>
    <_>
      <rects>
        <_>
          14 24 9 4 -1.</_>
        <_>
          14 26 9 2 2.</_></rects>
      <tilted>0</tilted></_>
    <_>
      <rects>
        <_>
          15 9 8 22 -1.</_>
        <_>
          19 9 4 22 2.</_></rects>
      <tilted>0</tilted></_>
    <_>
      <rects>
        <_>
          15 22 5 2 -1.</_>
        <_>
          15 23 5 1 2.</_></rects>
      <tilted>0</tilted></_>
    <_>
      <rects>
        <_>
          15 22 9 3 -1.</_>
        <_>
          15 23 9 1 3.</_></rects>
      <tilted>0</tilted></_>
    <_>
      <rects>
        <_>
          16 14 3 18 -1.</_>
        <_>
          16 23 3 9 2.</_></rects>
      <tilted>0</tilted></_>
    <_>
      <rects>
        <_>
          16 19 8 13 -1.</_>
        <_>
          20 19 4 13 2.</_></rects>
      <tilted>0</tilted></_>
    <_>
      <rects>
        <_>
          16 22 6 10 -1.</_>
        <_>
          19 22 3 10 2.</_></rects>
      <tilted>0</tilted></_>
    <_>
      <rects>
        <_>
          16 22 7 2 -1.</_>
        <_>
          16 23 7 1 2.</_></rects>
      <tilted>0</tilted></_>
    <_>
      <rects>
        <_>
          17 17 12 2 -1.</_>
        <_>
          23 17 6 2 2.</_></rects>
      <tilted>0</tilted></_>
    <_>
      <rects>
        <_>
          17 26 9 6 -1.</_>
        <_>
          17 29 9 3 2.</_></rects>
      <tilted>0</tilted></_>
    <_>
      <rects>
        <_>
          18 10 5 22 -1.</_>
        <_>
          18 21 5 11 2.</_></rects>
      <tilted>0</tilted></_>
    <_>
      <rects>
        <_>
          18 16 3 16 -1.</_>
        <_>
          18 24 3 8 2.</_></rects>
      <tilted>0</tilted></_>
    <_>
      <rects>
        <_>
          18 17 14 1 -1.</_>
        <_>
          25 17 7 1 2.</_></rects>
      <tilted>0</tilted></_>
    <_>
      <rects>
        <_>
          18 24 9 8 -1.</_>
        <_>
          18 28 9 4 2.</_></rects>
      <tilted>0</tilted></_>
    <_>
      <rects>
        <_>
          18 31 14 1 -1.</_>
        <_>
          25 31 7 1 2.</_></rects>
      <tilted>0</tilted></_>
    <_>
      <rects>
        <_>
          20 3 4 21 -1.</_>
        <_>
          20 10 4 7 3.</_></rects>
      <tilted>0</tilted></_>
    <_>
      <rects>
        <_>
          21 15 8 1 -1.</_>
        <_>
          25 15 4 1 2.</_></rects>
      <tilted>0</tilted></_>
    <_>
      <rects>
        <_>
          22 2 10 17 -1.</_>
        <_>
          27 2 5 17 2.</_></rects>
      <tilted>0</tilted></_>
    <_>
      <rects>
        <_>
          22 7 5 12 -1.</_>
        <_>
          22 11 5 4 3.</_></rects>
      <tilted>0</tilted></_>
    <_>
      <rects>
        <_>
          22 12 10 20 -1.</_>
        <_>
          22 12 5 10 2.</_>
        <_>
          27 22 5 10 2.</_></rects>
      <tilted>0</tilted></_>
    <_>
      <rects>
        <_>
          22 22 10 10 -1.</_>
        <_>
          22 22 5 5 2.</_>
        <_>
          27 27 5 5 2.</_></rects>
      <tilted>0</tilted></_></features></cascade>
</opencv_storage>
